<?xml version="1.0"?>
<MethodSetup Method="MLP::MLP_all">
  <GeneralInfo>
    <Info name="TMVA Release" value="4.2.0 [262656]"/>
    <Info name="ROOT Release" value="5.34/36 [336420]"/>
    <Info name="Creator" value="jdb"/>
    <Info name="Date" value="Tue Oct  3 23:58:03 2017"/>
    <Info name="Host" value="Darwin macitois17.cern.ch 15.3.0 Darwin Kernel Version 15.3.0: Thu Dec 10 18:40:58 PST 2015; root:xnu-3248.30.4~1/RELEASE_X86_64 x86_64"/>
    <Info name="Dir" value="/Users/jdb/bnl/local/work/MtdMuonPidMva/bin"/>
    <Info name="Training events" value="100000"/>
    <Info name="TrainingTime" value="7.51731045e+03"/>
    <Info name="AnalysisType" value="Classification"/>
  </GeneralInfo>
  <Options>
    <Option name="NCycles" modified="Yes">600</Option>
    <Option name="HiddenLayers" modified="Yes">N+5,N+5,N+5</Option>
    <Option name="NeuronType" modified="Yes">tanh</Option>
    <Option name="RandomSeed" modified="No">1</Option>
    <Option name="EstimatorType" modified="No">MSE</Option>
    <Option name="NeuronInputType" modified="No">sum</Option>
    <Option name="V" modified="Yes">True</Option>
    <Option name="VerbosityLevel" modified="No">Verbose</Option>
    <Option name="VarTransform" modified="Yes">N</Option>
    <Option name="H" modified="Yes">True</Option>
    <Option name="CreateMVAPdfs" modified="No">False</Option>
    <Option name="IgnoreNegWeightsInTraining" modified="No">False</Option>
    <Option name="TrainingMethod" modified="No">BP</Option>
    <Option name="LearningRate" modified="No">2.000000e-02</Option>
    <Option name="DecayRate" modified="No">1.000000e-02</Option>
    <Option name="TestRate" modified="Yes">10</Option>
    <Option name="EpochMonitoring" modified="No">False</Option>
    <Option name="Sampling" modified="No">1.000000e+00</Option>
    <Option name="SamplingEpoch" modified="No">1.000000e+00</Option>
    <Option name="SamplingImportance" modified="No">1.000000e+00</Option>
    <Option name="SamplingTraining" modified="No">True</Option>
    <Option name="SamplingTesting" modified="No">False</Option>
    <Option name="ResetStep" modified="No">50</Option>
    <Option name="Tau" modified="No">3.000000e+00</Option>
    <Option name="BPMode" modified="No">sequential</Option>
    <Option name="BatchSize" modified="No">-1</Option>
    <Option name="ConvergenceImprove" modified="No">1.000000e-30</Option>
    <Option name="ConvergenceTests" modified="No">-1</Option>
    <Option name="UseRegulator" modified="Yes">False</Option>
    <Option name="UpdateLimit" modified="No">10000</Option>
    <Option name="CalculateErrors" modified="No">False</Option>
    <Option name="WeightRange" modified="No">1.000000e+00</Option>
  </Options>
  <Variables NVar="11">
    <Variable VarIndex="0" Expression="(MtdPidTraits_mDeltaY)" Label="dY" Title="MTD DeltaY" Unit="cm" Internal="dY" Type="F" Min="-6.38292999e+01" Max="6.37796211e+01"/>
    <Variable VarIndex="1" Expression="MtdPidTraits_mDeltaZ" Label="dZ" Title="MTD DeltaZ" Unit="cm" Internal="dZ" Type="F" Min="-1.39734879e+02" Max="1.39620010e+02"/>
    <Variable VarIndex="2" Expression="Tracks_mNSigmaPion" Label="nSigmaPi" Title="n #sigma #pi" Unit="" Internal="nSigmaPi" Type="F" Min="-3.36999989e+00" Max="1.19799995e+01"/>
    <Variable VarIndex="3" Expression="Tracks_mNHitsFit" Label="nh" Title="N Hits Fit" Unit="" Internal="nh" Type="I" Min="1.50000000e+01" Max="4.50000000e+01"/>
    <Variable VarIndex="4" Expression="Tracks_mDCA" Label="dca" Title="DCA" Unit="cm" Internal="dca" Type="F" Min="0.00000000e+00" Max="6.53560028e+01"/>
    <Variable VarIndex="5" Expression="MtdPidTraits_mCell" Label="Cell" Title="MTD Cell" Unit="" Internal="Cell" Type="I" Min="0.00000000e+00" Max="1.10000000e+01"/>
    <Variable VarIndex="6" Expression="MtdPidTraits_mModule" Label="Module" Title="MTD Module" Unit="" Internal="Module" Type="I" Min="0.00000000e+00" Max="4.00000000e+00"/>
    <Variable VarIndex="7" Expression="MtdPidTraits_mBL" Label="BL" Title="MTD BL" Unit="" Internal="BL" Type="I" Min="0.00000000e+00" Max="2.90000000e+01"/>
    <Variable VarIndex="8" Expression="Tracks_mPt" Label="pT" Title="p_{T}" Unit="GeV/c" Internal="pT" Type="F" Min="1.00222290e+00" Max="9.07963104e+01"/>
    <Variable VarIndex="9" Expression="Tracks_mCharge" Label="charge" Title="q" Unit="" Internal="charge" Type="I" Min="-1.00000000e+00" Max="1.00000000e+00"/>
    <Variable VarIndex="10" Expression="MtdPidTraits_mDeltaTOF" Label="dTOF" Title="MTD DeltaTOF" Unit="ns" Internal="dTOF" Type="F" Min="-4.51876793e+01" Max="4.01716232e+01"/>
  </Variables>
  <Spectators NSpec="0"/>
  <Classes NClass="2">
    <Class Name="Signal" Index="0"/>
    <Class Name="Background" Index="1"/>
  </Classes>
  <Transformations NTransformations="1">
    <Transform Name="Normalize">
      <Selection>
        <Input NInputs="11">
          <Input Type="Variable" Label="dY" Expression="(MtdPidTraits_mDeltaY)"/>
          <Input Type="Variable" Label="dZ" Expression="MtdPidTraits_mDeltaZ"/>
          <Input Type="Variable" Label="nSigmaPi" Expression="Tracks_mNSigmaPion"/>
          <Input Type="Variable" Label="nh" Expression="Tracks_mNHitsFit"/>
          <Input Type="Variable" Label="dca" Expression="Tracks_mDCA"/>
          <Input Type="Variable" Label="Cell" Expression="MtdPidTraits_mCell"/>
          <Input Type="Variable" Label="Module" Expression="MtdPidTraits_mModule"/>
          <Input Type="Variable" Label="BL" Expression="MtdPidTraits_mBL"/>
          <Input Type="Variable" Label="pT" Expression="Tracks_mPt"/>
          <Input Type="Variable" Label="charge" Expression="Tracks_mCharge"/>
          <Input Type="Variable" Label="dTOF" Expression="MtdPidTraits_mDeltaTOF"/>
        </Input>
        <Output NOutputs="11">
          <Output Type="Variable" Label="dY" Expression="(MtdPidTraits_mDeltaY)"/>
          <Output Type="Variable" Label="dZ" Expression="MtdPidTraits_mDeltaZ"/>
          <Output Type="Variable" Label="nSigmaPi" Expression="Tracks_mNSigmaPion"/>
          <Output Type="Variable" Label="nh" Expression="Tracks_mNHitsFit"/>
          <Output Type="Variable" Label="dca" Expression="Tracks_mDCA"/>
          <Output Type="Variable" Label="Cell" Expression="MtdPidTraits_mCell"/>
          <Output Type="Variable" Label="Module" Expression="MtdPidTraits_mModule"/>
          <Output Type="Variable" Label="BL" Expression="MtdPidTraits_mBL"/>
          <Output Type="Variable" Label="pT" Expression="Tracks_mPt"/>
          <Output Type="Variable" Label="charge" Expression="Tracks_mCharge"/>
          <Output Type="Variable" Label="dTOF" Expression="MtdPidTraits_mDeltaTOF"/>
        </Output>
      </Selection>
      <Class ClassIndex="0">
        <Ranges>
          <Range Index="0" Min="-6.3386619567871094e+01" Max="6.2993087768554688e+01"/>
          <Range Index="1" Min="-1.3530110168457031e+02" Max="1.3428541564941406e+02"/>
          <Range Index="2" Min="-3.2799999713897705e+00" Max="1.1079999923706055e+01"/>
          <Range Index="3" Min="1.5000000000000000e+01" Max="4.5000000000000000e+01"/>
          <Range Index="4" Min="0.0000000000000000e+00" Max="6.1964000701904297e+01"/>
          <Range Index="5" Min="0.0000000000000000e+00" Max="1.1000000000000000e+01"/>
          <Range Index="6" Min="0.0000000000000000e+00" Max="4.0000000000000000e+00"/>
          <Range Index="7" Min="0.0000000000000000e+00" Max="2.9000000000000000e+01"/>
          <Range Index="8" Min="1.0034775733947754e+00" Max="6.7316925048828125e+01"/>
          <Range Index="9" Min="-1.0000000000000000e+00" Max="1.0000000000000000e+00"/>
          <Range Index="10" Min="-7.0444023609161377e-01" Max="5.1704823970794678e-01"/>
        </Ranges>
      </Class>
      <Class ClassIndex="1">
        <Ranges>
          <Range Index="0" Min="-6.3829299926757812e+01" Max="6.3779621124267578e+01"/>
          <Range Index="1" Min="-1.3973487854003906e+02" Max="1.3962001037597656e+02"/>
          <Range Index="2" Min="-3.3699998855590820e+00" Max="1.1979999542236328e+01"/>
          <Range Index="3" Min="1.5000000000000000e+01" Max="4.5000000000000000e+01"/>
          <Range Index="4" Min="0.0000000000000000e+00" Max="6.5356002807617188e+01"/>
          <Range Index="5" Min="0.0000000000000000e+00" Max="1.1000000000000000e+01"/>
          <Range Index="6" Min="0.0000000000000000e+00" Max="4.0000000000000000e+00"/>
          <Range Index="7" Min="0.0000000000000000e+00" Max="2.9000000000000000e+01"/>
          <Range Index="8" Min="1.0022228956222534e+00" Max="9.0796310424804688e+01"/>
          <Range Index="9" Min="-1.0000000000000000e+00" Max="1.0000000000000000e+00"/>
          <Range Index="10" Min="-4.5187679290771484e+01" Max="4.0171623229980469e+01"/>
        </Ranges>
      </Class>
      <Class ClassIndex="2">
        <Ranges>
          <Range Index="0" Min="-6.3829299926757812e+01" Max="6.3779621124267578e+01"/>
          <Range Index="1" Min="-1.3973487854003906e+02" Max="1.3962001037597656e+02"/>
          <Range Index="2" Min="-3.3699998855590820e+00" Max="1.1979999542236328e+01"/>
          <Range Index="3" Min="1.5000000000000000e+01" Max="4.5000000000000000e+01"/>
          <Range Index="4" Min="0.0000000000000000e+00" Max="6.5356002807617188e+01"/>
          <Range Index="5" Min="0.0000000000000000e+00" Max="1.1000000000000000e+01"/>
          <Range Index="6" Min="0.0000000000000000e+00" Max="4.0000000000000000e+00"/>
          <Range Index="7" Min="0.0000000000000000e+00" Max="2.9000000000000000e+01"/>
          <Range Index="8" Min="1.0022228956222534e+00" Max="9.0796310424804688e+01"/>
          <Range Index="9" Min="-1.0000000000000000e+00" Max="1.0000000000000000e+00"/>
          <Range Index="10" Min="-4.5187679290771484e+01" Max="4.0171623229980469e+01"/>
        </Ranges>
      </Class>
    </Transform>
  </Transformations>
  <MVAPdfs/>
  <Weights>
    <Layout NLayers="5">
      <Layer Index="0" NNeurons="12">
        <Neuron NSynapses="16">
          -3.3091339776040813e+00 1.8199987186436668e+00 5.5411106624505135e-01 2.4536770622038531e+00 -1.9907289764036500e+00 -1.2885315670077593e+00 -1.8279218043548276e-01 1.7577662916348380e+00 -1.2416354599326462e+00 -1.9638577575338725e-01 -5.2172625371475068e-01 -6.5705792743562708e-01 -1.7064859636280230e+00 -2.3381043260175516e+00 -1.5052691836062844e+00 7.1724462550110601e-01 
        </Neuron>
        <Neuron NSynapses="16">
          3.5712510834125272e-01 2.4535114683705377e+00 1.1110974440786217e-01 1.3337910910748507e+00 2.5465026371112594e-02 -6.2925989449426512e-01 7.5197922585684092e+00 1.6719792315268373e-01 -1.2678729780916800e+00 1.2049971017593757e+00 1.6691598499952871e+00 -1.3756091315966927e+00 -3.2643369564581310e+00 2.3323849987921211e-01 -8.6287613206405711e-01 1.6218266545226154e+00 
        </Neuron>
        <Neuron NSynapses="16">
          1.1283201359030897e+00 5.0665387800361572e-01 -5.9891364481214027e-01 -6.7837026512977561e-01 -1.2587007513677240e+00 1.3651249292741279e+00 -6.7583652335879396e-01 1.4520087320816575e+00 1.3213500168403158e+00 1.2428117014668690e-01 4.3755156518878228e-02 6.3329776547925554e-01 -8.0150985577573186e-01 1.3576307325371952e+00 -1.8742213615792840e+00 1.0024475273367590e-01 
        </Neuron>
        <Neuron NSynapses="16">
          -7.8423147435135315e-03 3.8760421929399644e-02 1.7617879301710828e+00 9.6400998019578132e-01 -6.3158313754923345e-01 1.1323001450466221e+00 8.4648929096345724e-03 -1.1233765569269862e+00 -1.4750829775133314e+00 -4.1461252343069840e-02 -3.8964926032067720e-02 9.7240976233684584e-01 -3.0620872515772085e-02 3.0863008531747876e-01 -3.0252312817880272e-01 1.6883317344814617e+00 
        </Neuron>
        <Neuron NSynapses="16">
          2.7175891959883174e+00 1.7629451245035255e+00 -1.3767806236941640e+00 -1.4644986339090711e+00 1.2334702531170818e+00 -1.3090244915114764e+00 -1.2862733349312734e+00 -5.1176804980055079e-01 1.2825072242182485e+00 2.5774775614481054e+00 1.9002694754361784e+00 -1.4760264720227092e+00 -2.6844931152106638e-01 -3.7203097508487293e+00 2.7361202122942445e+00 -3.3720642820371699e-01 
        </Neuron>
        <Neuron NSynapses="16">
          -4.7822096137964787e-02 -3.3347820546765890e-02 8.0655066444864643e-01 -5.7746983698886534e-01 -1.2024055540080840e+00 -5.1812274578121509e-01 2.1709100515907537e-02 1.7212624963438460e-02 -1.0628653433318338e+00 4.3265991407608895e-02 3.1914249878436003e-02 -3.8740412909988764e-01 2.9224877773842781e-02 -2.0102114057431013e+00 -1.5479568931616585e+00 9.5007079578676257e-01 
        </Neuron>
        <Neuron NSynapses="16">
          -2.3751297422718781e-02 -1.2543233192895686e-02 -1.1343546329725180e+00 -9.8157932309197282e-02 -1.3241821033718433e+00 -1.4317983887352281e+00 8.8732565155437027e-03 1.0751187412378402e+00 -4.4842854037595685e-02 1.8562580070068342e-02 2.2193808849239865e-02 -2.2981710946390649e-01 9.1191655059409313e-04 5.3194923108067650e-02 -3.5481646696167331e-02 1.1533042109341053e-01 
        </Neuron>
        <Neuron NSynapses="16">
          3.2196336148822662e-02 1.9317095702412395e-02 -1.2030418679906283e+00 2.6965554180850310e-01 -3.9198175257296308e-01 -7.7442663093721298e-01 6.6084179696744736e-03 -8.2969778695392082e-01 -1.2964235655433320e+00 -2.7341089338581311e-02 -1.2781160009681863e-02 1.1830722762605566e+00 -1.3471897061534203e-02 -3.7671384786591315e-02 -8.6475404548601767e-02 -2.7069795257032647e-01 
        </Neuron>
        <Neuron NSynapses="16">
          -5.5448897702151250e+00 -2.4733091035594406e+00 -8.6671118844636297e-01 -2.7311545738846128e+00 1.0497892342555368e+00 -2.2141189493926188e+00 7.0562555063295056e+00 2.2159833196080090e+00 2.1938556115654486e+00 -1.0336965800738424e+01 -6.2074926108945305e-01 4.5119792443685608e-01 1.8670205583192738e+00 1.0052119428329493e+00 -2.2924234647379582e-01 -1.1182459518476409e+00 
        </Neuron>
        <Neuron NSynapses="16">
          -4.3611002842474107e-02 -4.3093675033597227e-02 8.1223827601654408e-01 5.1752368344037813e-01 -1.0539119588635720e-01 3.7164968260760917e-01 -3.2989451749834958e-03 3.3745034471838775e-01 1.1282356768859458e+00 5.3181745592326399e-02 3.4239848957614560e-02 -1.4439466847154650e-01 3.3715694057514074e-02 3.1399229476765544e-01 2.3040917463302521e-01 -6.7354981346359838e-02 
        </Neuron>
        <Neuron NSynapses="16">
          1.2665452733085076e+00 2.3485365587428717e+01 6.4495120387728910e-01 6.0747437195684628e-01 9.4439994202298305e-01 -5.3878223551333271e-01 -4.2678264452449710e+00 9.4292238331136713e-01 -9.9609716619780286e-01 -1.1781443175366130e+01 2.0025537160959615e+01 9.8444691606390677e-01 1.9198277500727993e+01 1.5387276903995479e+00 5.3456020529086503e+00 -1.8111474519328672e+00 
        </Neuron>
        <Neuron NSynapses="16">
          -1.0126056450535248e+00 -1.4915614416485978e+00 2.0068786321059555e+00 -1.2611858223289076e+00 -1.9778670758935257e+00 1.6117361444187190e+00 4.2338795411829793e+00 -2.6888224961376794e+00 -7.5814945858091709e-01 -5.5177062845432721e+00 7.7264082306268328e-02 2.7580800409359258e+00 -3.8508837103848681e-01 1.0389803468980907e+00 -1.2587331554466605e+00 1.8865477960749550e+00 
        </Neuron>
      </Layer>
      <Layer Index="1" NNeurons="17">
        <Neuron NSynapses="16">
          1.0019877727674904e+00 5.7831779024666896e-01 -2.4603625577747801e-01 -1.8752767555736833e+00 -1.2932542886817127e+00 1.1711133038512740e+00 2.5028643721074978e-01 -4.0243045181347510e+00 -3.7100891714587952e-01 3.1694297207017225e-01 1.7815583044935873e-01 -7.0739865200144292e-01 1.4514744818089520e-01 1.4456814286539740e-01 -1.0367068685197809e+00 6.3928205623194279e-01 
        </Neuron>
        <Neuron NSynapses="16">
          3.5906942383604132e+00 -2.1388613837029085e+00 3.1592628051862287e-01 1.0845521734183268e+00 -1.8156153600595157e+00 -4.3184973032384272e-01 1.3660144058655073e+00 2.4467956402145665e+00 5.6245043890890734e-01 1.9140594527569116e-01 1.6941292720656129e+00 -3.6611320396596416e+00 3.7552018866558456e-03 -3.1611447535467252e+00 -8.5393026990691245e-01 -2.0353853752653097e+00 
        </Neuron>
        <Neuron NSynapses="16">
          1.6331437347433522e+00 -1.1067843644992128e+00 7.5162476780572185e-01 -1.4491502353905270e-01 -1.8503099294403247e+00 -5.0434812178643584e-01 6.3239359473488210e-01 3.1076272837309354e-01 1.1686542421203090e+00 -1.1810052418984049e+00 1.7711240416762635e+00 -1.7946106552282786e+00 5.5568657498053720e-01 -4.6883810087998867e-01 -1.4998229692164637e+00 -2.0484162512021982e+00 
        </Neuron>
        <Neuron NSynapses="16">
          -1.8961725244768184e+00 -1.2017060765629214e-01 -1.8557682200069989e+00 -1.4976227952129153e+00 -2.1967412446217649e+00 5.4359605520007281e-01 -1.4032492382049071e+00 -1.1627706158284647e+00 1.3976095350591000e+00 -8.8315195104436806e-01 2.7621210693871656e-01 -1.1242492181955486e+00 3.8358450199729655e-01 1.2392186245289947e+00 1.3100049466317956e+00 -6.4637203438840196e-01 
        </Neuron>
        <Neuron NSynapses="16">
          -1.4866956193669263e+00 -1.1374456546421989e+00 -9.6786640301663873e-01 -1.5961772981732911e+00 1.2064286607292624e-01 -4.3611157962248331e-01 2.2334677716618767e+00 -4.1050145879708216e-01 1.2559181369385489e-01 -5.0483097499652196e-01 -2.1486148561339746e+00 1.4088475590459153e+00 1.3488407701319589e+00 -5.5542162369329809e-02 -1.0765706534470103e+00 1.5748057329676832e+00 
        </Neuron>
        <Neuron NSynapses="16">
          1.3051388187280824e+00 6.8937679218991021e-01 -3.9474852882158956e-01 -6.2770089859102673e-01 1.2924273812949021e+00 1.7006890138206088e+00 5.7634803598624362e-01 -1.0411035484054031e-01 4.2127635221215382e-01 -3.2602697666800362e-01 -1.2184572266414511e+00 -5.0218044864089006e-01 -2.0901532115407191e+00 -1.8429107290460498e+00 -1.4992510531239671e+00 8.9741119244496104e-01 
        </Neuron>
        <Neuron NSynapses="16">
          -2.3328755444574649e+00 3.4738363622326083e+00 -1.8680922885020765e+00 2.7527056205714179e-01 -3.4315997865410357e+00 -1.9577630315150760e-01 7.0687602657118609e-01 -2.2626166666159495e+00 9.7905404887607531e-02 5.8040444740977792e-01 -1.6803101062620294e+00 6.5818322221068049e-01 -1.0756671332018729e-01 -2.1715137147680603e+00 2.4835901085958203e+00 -3.4405885887514015e-01 
        </Neuron>
        <Neuron NSynapses="16">
          1.3902190967188355e-01 -8.5090935446789651e-01 -1.2762782911540533e+00 -1.3685429134973608e+00 -5.5261946440132548e-01 -1.9131779725352154e+00 1.3203867597572851e+00 -1.6009458410145057e+00 -1.5222599490190076e+00 1.8073710510010326e+00 1.2517876694325550e-01 -5.4866852339325456e-01 2.1269349429462854e+00 -1.0579372368493922e+00 1.5710234877498435e+00 1.6899592328539459e+00 
        </Neuron>
        <Neuron NSynapses="16">
          -9.3086120409965867e-01 -8.8776956201937829e-01 -5.4364368610956386e-03 -8.7839095855542848e-01 8.3454483291019232e-01 1.5409622736114081e+00 1.6002611963233204e+00 1.1716939341622814e+00 -1.6577849248074108e+00 1.0913307058750550e+00 -2.1552068421065589e+00 4.7495287045130691e-01 -1.4709625944756717e+00 -7.8118505843924158e-01 -5.7532448277674453e-02 1.6823859003079711e+00 
        </Neuron>
        <Neuron NSynapses="16">
          -2.6429285173384862e+00 1.2736842083278228e+00 1.6663978348953935e-02 -6.1842259637602738e-02 -1.1852537166954822e+00 -9.9571585746436320e-02 2.0550452601584710e+00 -6.0695708215558107e-02 2.0082309709207555e-01 -1.3967983975489333e+00 -3.5791852884225034e-01 1.4574393482185570e+00 6.7411902022150116e-01 -5.3914896533432299e-01 2.5533575705728812e-01 8.1397588648619230e+00 
        </Neuron>
        <Neuron NSynapses="16">
          3.1549639382162487e+00 -1.3031182805458559e+00 -4.1981441599447378e-01 -1.3534402599718018e+00 -2.0324177382392516e+00 5.4026504592281210e-01 -4.0060163456836134e-01 -9.1363799488757058e-01 3.3329132386896282e-01 -1.6389624160077516e+00 -1.4115091518078542e+00 -9.6948866779200282e-01 2.0638297965784111e-01 -2.8503109841154752e+00 -1.2895585682602031e+00 -2.3128558620222464e+00 
        </Neuron>
        <Neuron NSynapses="16">
          -1.0075345222203484e+00 -1.6507631224145922e+00 1.5396804500737504e+00 -1.6626183014479794e+00 -1.4878428556943715e+00 1.9914808131353157e+00 2.2751734359784251e-01 6.5587435628420121e-01 3.0386533097573631e-01 1.3214941017414596e+00 1.5211390050804507e+00 7.2759932928140048e-01 -9.9183971119592929e-01 -1.4241235220588917e+00 -1.7872678116445215e+00 2.3406338563475178e-02 
        </Neuron>
        <Neuron NSynapses="16">
          2.9611946556097291e+00 -2.1250981138160383e+00 1.1237977120337437e+00 -2.3977111612036852e+00 1.4676525372596538e+00 -1.3990829491070933e+00 1.6719757434309290e+00 -3.5169916937690171e-01 -1.7652463693300939e+00 -2.6996534663615013e-01 -1.0456214027006854e+00 2.1687168462980755e-01 2.3427666222629437e-01 -2.3151764024870349e+00 1.5550853515373380e+00 -2.2977470250631544e+00 
        </Neuron>
        <Neuron NSynapses="16">
          1.4501646529413719e+00 2.1432964043703433e+00 -1.3967246488249163e-01 -1.2340615131844117e+00 6.4516941870520150e-01 -1.4687249916523282e+00 1.4406555299182749e-01 1.5512053247761595e+00 -2.4396137147052510e-01 -8.6645654062270228e-01 1.1967998320922292e-01 -1.0131772974735258e+00 2.3264716689723075e+00 2.0833405354608703e-01 2.3878778295073913e-01 8.1600973789008091e-01 
        </Neuron>
        <Neuron NSynapses="16">
          -1.2026337987482736e+00 -6.1415388603431575e-01 1.7142920290976751e+00 9.1954388767146555e-01 -3.2918820089173084e-01 3.5277119558298620e-01 1.7725807229335051e+00 -1.1082045664720181e+00 -1.3671451385254989e+00 -5.5662425217669476e-01 -1.5463590472448108e+00 -9.8808121542180521e-02 -2.3838110118370208e+00 -6.7060613253704116e-01 2.8517506431652014e-02 -8.8614490548101765e-01 
        </Neuron>
        <Neuron NSynapses="16">
          -1.8622693018603020e+00 -2.0492642219888166e-01 1.5791000163604907e+00 1.7001865866657671e+00 1.0787432762988194e+00 -5.6180915272663601e-01 -2.1174375570351964e+00 -1.0492122982624108e-02 -1.0702508978090377e+00 -1.5447328370890561e+00 -5.0088629882225588e-01 3.1871450752436209e-01 -1.6166516512863087e+00 4.4464683444265368e-01 9.7286323945729170e-01 -3.3679304685233119e-01 
        </Neuron>
        <Neuron NSynapses="16">
          -4.1746495540974915e-01 -7.5251331683464240e-01 1.8310446661309192e+00 -8.1633245702879265e-01 2.4308185413189293e-01 2.0928360684113190e+00 1.1055612649351849e+00 -7.5465199896370827e-01 1.5822891394999721e+00 -1.9475144954539947e+00 1.8750842376643395e+00 1.8629656520650937e+00 -4.5787509283508215e-01 -8.6822926130721167e-01 2.2473623108740964e-01 -1.3606029001764801e+00 
        </Neuron>
      </Layer>
      <Layer Index="2" NNeurons="17">
        <Neuron NSynapses="16">
          1.4369872169148681e+00 2.7588432920729067e-01 -9.0896331386445606e-01 -6.8610229760321573e-01 -6.6802818127798660e-02 1.8588850695263919e+00 6.4079408498708279e-01 -1.8159490864615102e+00 -1.1263669648918946e+00 1.9113786067314982e+00 -2.5440538532182647e-02 -1.4530855023322513e+00 -5.4297217117414628e-02 -7.8161385935277761e-01 1.1360599733570895e-01 4.7554745368197121e-01 
        </Neuron>
        <Neuron NSynapses="16">
          -9.8533181167083472e-01 -2.9060798688832162e-01 1.3362065950708590e+00 6.4091204535513624e-01 2.5017485044374099e-01 -7.3007938653635751e-01 -9.1755028635449598e-01 -1.9200841172375880e+00 -1.9859079846377779e-02 3.3569661825478686e-01 -7.8282988471193790e-02 -1.7743689822451232e+00 -1.7953419843869707e+00 -2.3386104064624624e+00 7.0578881884193562e-02 -2.3700584776117151e-01 
        </Neuron>
        <Neuron NSynapses="16">
          9.7926408464370418e-01 -4.8357369006011763e-01 1.3559825693208867e+00 1.0213097183977071e+00 -1.9594593222024754e+00 1.8063833065503838e+00 1.1699949904415126e+00 1.9100304580917189e+00 -5.8018898071597391e-01 -1.0967460680816334e+00 1.3576466309582704e+00 -1.8179313258926477e+00 -1.3916283337920507e-01 -4.3937334119159666e-01 9.8584609075527152e-01 -7.7701859469760359e-01 
        </Neuron>
        <Neuron NSynapses="16">
          1.6685009442622096e+00 2.5291103739082099e-01 2.7198833512462195e-01 -1.6848923205542721e-01 -9.2981117205448072e-01 9.2795246885013061e-01 1.6442135956425316e-01 1.1623780487920594e+00 -1.5791316599332061e-01 1.0204110687504492e-01 -6.9405896227131780e-02 -1.6829485048689219e+00 4.9685558046283407e-01 1.8038796118626574e+00 1.2057967446043401e-02 -5.7860718999400880e-03 
        </Neuron>
        <Neuron NSynapses="16">
          1.3692055531190561e+00 2.6264432497720902e-01 -7.2410685308964595e-01 -2.2418036394384905e-01 7.6297386572429104e-01 9.6531866684826728e-01 2.0426804451646677e-01 1.2788273257792986e+00 -2.2905001578351011e-01 -1.5251149259388366e-01 -5.4123366121004088e-02 -1.5354719948833739e+00 -3.8459737158790269e-01 1.7164672700767272e+00 -4.6619952912740847e-02 -1.5890543939662932e-01 
        </Neuron>
        <Neuron NSynapses="16">
          4.7006530276234965e-01 1.7005371012309781e-01 -5.3291079134675201e-01 -5.6991158058122171e-01 1.9022133860764097e+00 -1.9588661061541460e-01 7.0673329131814011e-01 1.4593570150608279e+00 -1.3567725367455150e+00 -1.1730169257521414e+00 -7.1260813945908219e-01 -2.2110783313541957e+00 -1.2167189978112505e+00 -2.6386856531823299e-01 1.1073957629826570e+00 -1.4552304830548259e+00 
        </Neuron>
        <Neuron NSynapses="16">
          1.2782631486724103e+00 1.9483161557200537e+00 1.6052962957196271e+00 4.7856612693664935e-01 5.7491782791821233e-01 -8.7186222284435622e-02 -9.9431886427177296e-01 -2.4871548101943528e+00 -6.5917314617923639e-01 -4.3852433869464813e-01 1.7486476409607870e+00 2.9725000722578182e-01 5.4807633087912311e-01 5.4695623170503416e-01 1.4443794233671088e+00 -1.5028716358671641e+00 
        </Neuron>
        <Neuron NSynapses="16">
          -1.8846077294738566e+00 -6.9316451708373250e-01 9.0945170899674177e-01 -1.1241258883068194e-02 1.6311893739340072e-01 -8.8443211965931545e-01 2.0850205913428843e-01 -1.3840819669571132e+00 4.9450623678794985e-02 1.7467542072738987e-01 3.7273733729269273e-02 1.0537875507372665e+00 -5.1685442227902534e-01 -1.5786080333145613e+00 -8.4392184910962471e-03 -9.5259511112767842e-02 
        </Neuron>
        <Neuron NSynapses="16">
          -2.9122517932138670e-01 6.1574778535047847e-01 -1.8598470592105052e+00 -3.8961327379422617e-01 2.0370292821167428e+00 -2.1367201368812654e+00 -1.1088067550403400e+00 -1.8350086575225463e-01 1.1205917609522444e+00 1.1125382028431883e+00 1.1379327504644139e+00 -1.9261293378939965e+00 2.2225916929425851e-01 1.4051475968129929e+00 3.3739305341298841e-02 -9.6872612624092580e-01 
        </Neuron>
        <Neuron NSynapses="16">
          -1.5502322946238236e+00 2.8181246495715234e-01 1.2470455295074083e-01 9.5810814791793608e-01 -7.4753772756498371e-01 2.3173383530874425e-01 -1.2659972271364164e+00 7.0212736584114432e-01 5.2506224774122201e-01 1.7002790446316938e+00 -3.8685955343193124e-01 -1.2302538821540583e+00 2.1393974005235936e+00 -6.1716656017177152e-01 1.8631845705496157e+00 -3.5416734861129862e-01 
        </Neuron>
        <Neuron NSynapses="16">
          -7.6042326421784401e-01 -1.3270748384015463e+00 -1.8414166209822012e+00 4.1355851487009104e-01 -1.1748956637284462e+00 -3.5215420558654142e-01 -4.6097185311586804e-02 1.5044891676862560e-02 7.4087448044062831e-01 -2.3018720959174566e+00 -1.5249660159919984e+00 -1.9267801235984025e-01 -1.3417096386196741e+00 1.4505473181186221e+00 1.1499108563532756e+00 -1.4523067521369137e+00 
        </Neuron>
        <Neuron NSynapses="16">
          -3.0816480600223567e-01 -5.1949119494047780e-01 7.1313508833452699e-01 -1.2844575965815436e-01 -8.4432871971625301e-01 -1.6468662556540326e+00 -1.5772355045783551e-01 8.6201829184430045e-01 2.1577608725735227e-02 3.4535830707783344e-01 1.2706542732967593e-01 -7.5784096869743800e-01 -9.1325997484682508e-01 -1.7255287018816388e+00 4.3456242228823744e-01 3.5461448999624751e-01 
        </Neuron>
        <Neuron NSynapses="16">
          -8.6265280044186388e-01 -9.8684886755816137e-01 1.0138217881089380e+00 -5.0832478706395057e-01 -1.3665769963058438e+00 1.5016250137516112e+00 1.4329883972481328e+00 -1.6844146139328147e+00 -5.2198683556529157e-01 -1.0614426499519916e+00 3.2109903472092854e-01 1.6904892452902269e+00 1.7583758198874480e+00 2.2725180364840775e-01 -1.4747826083775675e+00 -9.0077039149258009e-01 
        </Neuron>
        <Neuron NSynapses="16">
          -1.5546566604346839e+00 -2.7617418066391280e-01 1.1183305536057793e+00 3.1813072390600750e-01 1.5753884758155556e+00 -9.2746940967383684e-01 -7.2983849015797009e-01 -1.2473509827435301e+00 7.2288224634698681e-02 1.1802000657303571e+00 -6.9441540790421433e-02 -1.0877344089092940e+00 7.7383770775071037e-01 -1.7267855097278322e+00 -4.2157624027430417e-02 -2.5167750437195463e-02 
        </Neuron>
        <Neuron NSynapses="16">
          -1.5506846724911922e+00 -1.3523141559977745e+00 7.2110338976707788e-01 1.9906490080142700e-01 9.3935208189542896e-01 1.1066418346345595e+00 4.5321290480709708e-01 -1.0360376575334613e+00 1.3319767665875764e+00 1.0161364925064755e+00 -1.3774367653472497e+00 4.8222216997098721e-01 1.1927207998003102e+00 7.1664008602299001e-01 9.9530819536595061e-01 -1.1406946126607374e+00 
        </Neuron>
        <Neuron NSynapses="16">
          -1.3618098945679808e+00 -1.6769165755526316e-01 -4.3123648817809374e-01 8.4450335969659493e-02 -7.5360459629083465e-01 2.8517821103609959e+00 -7.3913375364373146e-01 -1.1219688663177657e-02 2.3848901590858365e-01 2.0468795515080704e-01 -4.0956885240781254e-02 4.4386325995249332e-01 1.1280498925295266e+00 -2.0081782907976260e+00 1.0531279599465422e-01 -3.1423812218818806e-02 
        </Neuron>
        <Neuron NSynapses="16">
          -6.0214823846433996e-01 1.6797238034706512e+00 -1.7154196161861117e+00 9.6744239213348196e-02 1.6960716126756683e+00 -1.0177724647532116e-01 3.8547473015757133e-01 3.3187331013145960e-01 1.7514335846479421e+00 1.5210793250704824e+00 1.8093112043951057e-01 -1.3991743878071869e+00 1.4554342057842402e+00 2.7561298263803562e+00 -3.2154149541837804e-02 8.6033438426090447e-01 
        </Neuron>
      </Layer>
      <Layer Index="3" NNeurons="17">
        <Neuron NSynapses="1">
          -1.0332812611460331e-01 
        </Neuron>
        <Neuron NSynapses="1">
          1.1846514793305447e-01 
        </Neuron>
        <Neuron NSynapses="1">
          -8.6127677736008179e-01 
        </Neuron>
        <Neuron NSynapses="1">
          -2.9309528914503790e-02 
        </Neuron>
        <Neuron NSynapses="1">
          -4.0792907383409577e-01 
        </Neuron>
        <Neuron NSynapses="1">
          3.7976842229582874e-01 
        </Neuron>
        <Neuron NSynapses="1">
          1.7635147615063962e-01 
        </Neuron>
        <Neuron NSynapses="1">
          -3.0985321846204789e-01 
        </Neuron>
        <Neuron NSynapses="1">
          6.3981243643842473e-02 
        </Neuron>
        <Neuron NSynapses="1">
          1.4609809610761135e-01 
        </Neuron>
        <Neuron NSynapses="1">
          -1.2022130858318426e-02 
        </Neuron>
        <Neuron NSynapses="1">
          1.6855140130032429e+00 
        </Neuron>
        <Neuron NSynapses="1">
          -8.3786513719739264e-01 
        </Neuron>
        <Neuron NSynapses="1">
          -1.1422232074482933e-01 
        </Neuron>
        <Neuron NSynapses="1">
          2.5255523293026494e-02 
        </Neuron>
        <Neuron NSynapses="1">
          -4.9795786529985009e-02 
        </Neuron>
        <Neuron NSynapses="1">
          1.1707384101858840e+00 
        </Neuron>
      </Layer>
      <Layer Index="4" NNeurons="1">
        <Neuron NSynapses="0"/>
      </Layer>
    </Layout>
  </Weights>
</MethodSetup>
